Language model created by QuickLM on Tue Mar  7 22:18:39 EST 2017
Copyright (c) 1996-2010 Carnegie Mellon University and Alexander I. Rudnicky

The model is in standard ARPA format, designed by Doug Paul while he was at MITRE.

The code that was used to produce this language model is available in Open Source.
Please visit http://www.speech.cs.cmu.edu/tools/ for more information

The (fixed) discount mass is 0.5. The backoffs are computed using the ratio method.
This model based on a corpus of 9 sentences and 14 words

\data\
ngram 1=14
ngram 2=21
ngram 3=12

\1-grams:
-0.8239 </s> -0.3010
-0.8239 <s> -0.2304
-1.7782 FETCH -0.2304
-1.7782 FOUR -0.2304
-1.7782 GO -0.2304
-1.7782 LETS -0.2937
-1.7782 ME -0.2304
-1.7782 ONE -0.2304
-1.7782 PASS -0.2937
-1.7782 PLAY -0.2937
-1.7782 SAVE -0.2304
-1.7782 SCORE -0.2304
-1.7782 THREE -0.2304
-1.7782 TWO -0.2304

\2-grams:
-1.2553 <s> FOUR 0.0000
-1.2553 <s> GO 0.0000
-1.2553 <s> LETS 0.0000
-1.2553 <s> ONE 0.0000
-1.2553 <s> PASS 0.0000
-1.2553 <s> SAVE 0.0000
-1.2553 <s> SCORE 0.0000
-1.2553 <s> THREE 0.0000
-1.2553 <s> TWO 0.0000
-0.3010 FETCH </s> -0.3010
-0.3010 FOUR </s> -0.3010
-0.3010 GO </s> -0.3010
-0.3010 LETS PLAY 0.0000
-0.3010 ME </s> -0.3010
-0.3010 ONE </s> -0.3010
-0.3010 PASS ME 0.0000
-0.3010 PLAY FETCH 0.0000
-0.3010 SAVE </s> -0.3010
-0.3010 SCORE </s> -0.3010
-0.3010 THREE </s> -0.3010
-0.3010 TWO </s> -0.3010

\3-grams:
-0.3010 <s> FOUR </s>
-0.3010 <s> GO </s>
-0.3010 <s> LETS PLAY
-0.3010 <s> ONE </s>
-0.3010 <s> PASS ME
-0.3010 <s> SAVE </s>
-0.3010 <s> SCORE </s>
-0.3010 <s> THREE </s>
-0.3010 <s> TWO </s>
-0.3010 LETS PLAY FETCH
-0.3010 PASS ME </s>
-0.3010 PLAY FETCH </s>

\end\
